{"learner":{"attributes":{},"feature_names":[],"feature_types":[],"gradient_booster":{"model":{"gbtree_model_param":{"num_parallel_tree":"1","num_trees":"50"},"iteration_indptr":[0,1,2,3,4,5,6,7,8,9,10,11,12,13,14,15,16,17,18,19,20,21,22,23,24,25,26,27,28,29,30,31,32,33,34,35,36,37,38,39,40,41,42,43,44,45,46,47,48,49,50],"tree_info":[0,0,0,0,0,0,0,0,0,0,0,0,0,0,0,0,0,0,0,0,0,0,0,0,0,0,0,0,0,0,0,0,0,0,0,0,0,0,0,0,0,0,0,0,0,0,0,0,0,0],"trees":[{"base_weights":[-5.8024193E-6,-4.2586983E1,3.7480255E1,-5.9605755E1,-2.437206E1,2.826305E1,1.1515977E2,-7.2435184E0,-5.2176747E0,-3.1031063E0,-1.0746939E0,1.4952806E0,3.9127495E0,9.452769E0,1.6214067E1],"categories":[],"categories_nodes":[],"categories_segments":[],"categories_sizes":[],"default_left":[0,0,0,0,0,0,0,0,0,0,0,0,0,0,0],"id":0,"left_children":[1,3,5,7,9,11,13,-1,-1,-1,-1,-1,-1,-1,-1],"loss_changes":[1.0986445E7,9.97353E5,2.6179775E6,1.549115E5,1.4102338E5,4.7286275E5,3.60767E5,0E0,0E0,0E0,0E0,0E0,0E0,0E0,0E0],"parents":[2147483647,0,0,1,1,2,2,3,3,4,4,5,5,6,6],"right_children":[2,4,6,8,10,12,14,-1,-1,-1,-1,-1,-1,-1,-1],"split_conditions":[7.854298E-2,-8.3881456E-1,1.520105E0,-1.1060302E0,-3.1461018E-1,5.372219E-1,3.5015304E0,-7.2435184E0,-5.2176747E0,-3.1031063E0,-1.0746939E0,1.4952806E0,3.9127495E0,9.452769E0,1.6214067E1],"split_indices":[2,2,2,1,2,2,1,0,0,0,0,0,0,0,0],"split_type":[0,0,0,0,0,0,0,0,0,0,0,0,0,0,0],"sum_hessian":[6.881E3,3.221E3,3.66E3,1.664E3,1.557E3,3.273E3,3.87E2,6.07E2,1.057E3,1.045E3,5.12E2,1.472E3,1.801E3,2.71E2,1.16E2],"tree_param":{"num_deleted":"0","num_feature":"40","num_nodes":"15","size_leaf_vector":"1"}},{"base_weights":[2.091372E-3,-3.8333447E1,3.3740715E1,-5.365266E1,-2.193754E1,2.5438395E1,1.0370994E2,-6.3524356E0,-4.525205E0,-2.7141714E0,-7.4913585E-1,1.6631415E0,3.934018E0,8.442217E0,1.4457852E1],"categories":[],"categories_nodes":[],"categories_segments":[],"categories_sizes":[],"default_left":[0,0,0,0,0,0,0,0,0,0,0,0,0,0,0],"id":1,"left_children":[1,3,5,7,9,11,13,-1,-1,-1,-1,-1,-1,-1,-1],"loss_changes":[8.902392E6,8.08101E5,2.1240622E6,1.35201E5,1.1692781E5,4.001905E5,2.93641E5,0E0,0E0,0E0,0E0,0E0,0E0,0E0,0E0],"parents":[2147483647,0,0,1,1,2,2,3,3,4,4,5,5,6,6],"right_children":[2,4,6,8,10,12,14,-1,-1,-1,-1,-1,-1,-1,-1],"split_conditions":[7.854298E-2,-8.3881456E-1,1.520105E0,-1.2319677E0,-2.490847E-1,6.6827285E-1,3.404868E0,-6.3524356E0,-4.525205E0,-2.7141714E0,-7.4913585E-1,1.6631415E0,3.934018E0,8.442217E0,1.4457852E1],"split_indices":[2,2,2,2,2,2,1,0,0,0,0,0,0,0,0],"split_type":[0,0,0,0,0,0,0,0,0,0,0,0,0,0,0],"sum_hessian":[6.881E3,3.221E3,3.66E3,1.664E3,1.557E3,3.273E3,3.87E2,7.62E2,9.02E2,1.144E3,4.13E2,2.005E3,1.268E3,2.65E2,1.22E2],"tree_param":{"num_deleted":"0","num_feature":"40","num_nodes":"15","size_leaf_vector":"1"}},{"base_weights":[3.9369008E-3,-3.342008E1,3.1457952E1,-4.8293926E1,-1.859738E1,2.1635805E1,8.0432594E1,-5.7504654E0,-4.088115E0,-2.3737314E0,-3.9601475E-1,1.0323895E0,2.8484964E0,6.5150895E0,1.2502834E1],"categories":[],"categories_nodes":[],"categories_segments":[],"categories_sizes":[],"default_left":[0,0,0,0,0,0,0,0,0,0,0,0,0,0,0],"id":2,"left_children":[1,3,5,7,9,11,13,-1,-1,-1,-1,-1,-1,-1,-1],"loss_changes":[7.2362325E6,7.348125E5,1.704014E6,1.113305E5,1.25773125E5,2.2865075E5,3.9530175E5,0E0,0E0,0E0,0E0,0E0,0E0,0E0,0E0],"parents":[2147483647,0,0,1,1,2,2,3,3,4,4,5,5,6,6],"right_children":[2,4,6,8,10,12,14,-1,-1,-1,-1,-1,-1,-1,-1],"split_conditions":[1.4406845E-1,-8.3881456E-1,1.1924772E0,-1.0415889E0,-1.8355922E-1,1.8279788E-1,3.1793232E0,-5.7504654E0,-4.088115E0,-2.3737314E0,-3.9601475E-1,1.0323895E0,2.8484964E0,6.5150895E0,1.2502834E1],"split_indices":[2,2,2,1,2,1,1,0,0,0,0,0,0,0,0],"split_type":[0,0,0,0,0,0,0,0,0,0,0,0,0,0,0],"sum_hessian":[6.881E3,3.336E3,3.545E3,1.664E3,1.672E3,2.954E3,5.91E2,7.39E2,9.25E2,1.237E3,4.35E2,1.115E3,1.839E3,4.42E2,1.49E2],"tree_param":{"num_deleted":"0","num_feature":"40","num_nodes":"15","size_leaf_vector":"1"}},{"base_weights":[5.038992E-3,-3.0081848E1,2.8318613E1,-4.142877E1,-1.4020163E1,2.2372244E1,9.525617E1,-5.0299106E0,-3.367214E0,-1.8813845E0,-3.5650444E-1,1.7617682E0,4.4203153E0,8.462423E0,1.4560397E1],"categories":[],"categories_nodes":[],"categories_segments":[],"categories_sizes":[],"default_left":[0,0,0,0,0,0,0,0,0,0,0,0,0,0,0],"id":3,"left_children":[1,3,5,7,9,11,13,-1,-1,-1,-1,-1,-1,-1,-1],"loss_changes":[5.863403E6,6.075895E5,1.409303E6,1.3281775E5,6.9246875E4,3.3739E5,1.4237875E5,0E0,0E0,0E0,0E0,0E0,0E0,0E0,0E0],"parents":[2147483647,0,0,1,1,2,2,3,3,4,4,5,5,6,6],"right_children":[2,4,6,8,10,12,14,-1,-1,-1,-1,-1,-1,-1,-1],"split_conditions":[1.4406845E-1,-7.077633E-1,2.2127023E0,-1.1664423E0,-1.8355922E-1,9.3037504E-1,4.242606E0,-5.0299106E0,-3.367214E0,-1.8813845E0,-3.5650444E-1,1.7617682E0,4.4203153E0,8.462423E0,1.4560397E1],"split_indices":[2,2,1,2,2,2,1,0,0,0,0,0,0,0,0],"split_type":[0,0,0,0,0,0,0,0,0,0,0,0,0,0,0],"sum_hessian":[6.881E3,3.336E3,3.545E3,1.954E3,1.382E3,3.257E3,2.88E2,9.09E2,1.045E3,9.47E2,4.35E2,2.676E3,5.81E2,2.4E2,4.8E1],"tree_param":{"num_deleted":"0","num_feature":"40","num_nodes":"15","size_leaf_vector":"1"}},{"base_weights":[7.2342493E-3,-2.3936758E1,2.8919718E1,-3.6428448E1,-8.142605E0,2.2988796E1,8.5810646E1,-4.6367245E0,-3.0236492E0,-1.5460143E0,-1.3492124E-1,1.4026767E0,3.1158593E0,7.2969956E0,1.1983317E1],"categories":[],"categories_nodes":[],"categories_segments":[],"categories_sizes":[],"default_left":[0,0,0,0,0,0,0,0,0,0,0,0,0,0,0],"id":4,"left_children":[1,3,5,7,9,11,13,-1,-1,-1,-1,-1,-1,-1,-1],"loss_changes":[4.764965E6,7.425215E5,1.050089E6,1.279565E5,8.269808E4,2.0640362E5,1.1969625E5,0E0,0E0,0E0,0E0,0E0,0E0,0E0,0E0],"parents":[2147483647,0,0,1,1,2,2,3,3,4,4,5,5,6,6],"right_children":[2,4,6,8,10,12,14,-1,-1,-1,-1,-1,-1,-1,-1],"split_conditions":[3.406452E-1,-6.4223784E-1,1.7166817E0,-1.0093682E0,-1.8355922E-1,3.439014E-1,3.8559582E0,-4.6367245E0,-3.0236492E0,-1.5460143E0,-1.3492124E-1,1.4026767E0,3.1158593E0,7.2969956E0,1.1983317E1],"split_indices":[2,2,2,1,2,1,1,0,0,0,0,0,0,0,0],"split_type":[0,0,0,0,0,0,0,0,0,0,0,0,0,0,0],"sum_hessian":[6.881E3,3.764E3,3.117E3,2.101E3,1.663E3,2.824E3,2.93E2,8.04E2,1.297E3,8E2,8.63E2,1.348E3,1.476E3,2.15E2,7.8E1],"tree_param":{"num_deleted":"0","num_feature":"40","num_nodes":"15","size_leaf_vector":"1"}},{"base_weights":[8.610813E-3,-2.1545563E1,2.6035378E1,-3.278925E1,-7.329353E0,2.0768915E1,7.8515594E1,-4.0000806E0,-2.55671E0,-1.3473271E0,-7.089917E-2,1.7295355E0,3.943555E0,7.1120477E0,1.2909457E1],"categories":[],"categories_nodes":[],"categories_segments":[],"categories_sizes":[],"default_left":[0,0,0,0,0,0,0,0,0,0,0,0,0,0,0],"id":5,"left_children":[1,3,5,7,9,11,13,-1,-1,-1,-1,-1,-1,-1,-1],"loss_changes":[3.8612628E6,6.01567E5,8.6013775E5,1.084555E5,6.767355E4,1.8313838E5,9.70455E4,0E0,0E0,0E0,0E0,0E0,0E0,0E0,0E0],"parents":[2147483647,0,0,1,1,2,2,3,3,4,4,5,5,6,6],"right_children":[2,4,6,8,10,12,14,-1,-1,-1,-1,-1,-1,-1,-1],"split_conditions":[3.406452E-1,-6.4223784E-1,2.2449226E0,-1.1009165E0,-1.1803344E-1,9.959005E-1,4.4681516E0,-4.0000806E0,-2.55671E0,-1.3473271E0,-7.089917E-2,1.7295355E0,3.943555E0,7.1120477E0,1.2909457E1],"split_indices":[2,2,1,2,2,2,1,0,0,0,0,0,0,0,0],"split_type":[0,0,0,0,0,0,0,0,0,0,0,0,0,0,0],"sum_hessian":[6.881E3,3.764E3,3.117E3,2.101E3,1.663E3,2.834E3,2.83E2,1.049E3,1.052E3,8.62E2,8.01E2,2.391E3,4.43E2,2.49E2,3.4E1],"tree_param":{"num_deleted":"0","num_feature":"40","num_nodes":"15","size_leaf_vector":"1"}},{"base_weights":[1.0322333E-2,-2.1976856E1,2.0701582E1,-3.418301E1,-1.3656265E1,1.4019556E1,5.4020306E1,-4.1069574E0,-2.8971636E0,-1.938906E0,-6.034589E-1,5.387582E-1,1.9247416E0,4.365541E0,8.427117E0],"categories":[],"categories_nodes":[],"categories_segments":[],"categories_sizes":[],"default_left":[0,0,0,0,0,0,0,0,0,0,0,0,0,0,0],"id":6,"left_children":[1,3,5,7,9,11,13,-1,-1,-1,-1,-1,-1,-1,-1],"loss_changes":[3.1313688E6,3.3844688E5,7.88712E5,4.7331375E4,8.665828E4,1.3324581E5,1.8194112E5,0E0,0E0,0E0,0E0,0E0,0E0,0E0,0E0],"parents":[2147483647,0,0,1,1,2,2,3,3,4,4,5,5,6,6],"right_children":[2,4,6,8,10,12,14,-1,-1,-1,-1,-1,-1,-1,-1],"split_conditions":[1.4406845E-1,-9.698655E-1,1.1924772E0,-6.0738844E-1,-4.4566113E-1,1.8279788E-1,3.1793232E0,-4.1069574E0,-2.8971636E0,-1.938906E0,-6.034589E-1,5.387582E-1,1.9247416E0,4.365541E0,8.427117E0],"split_indices":[2,2,2,0,2,1,1,0,0,0,0,0,0,0,0],"split_type":[0,0,0,0,0,0,0,0,0,0,0,0,0,0,0],"sum_hessian":[6.881E3,3.336E3,3.545E3,1.351E3,1.985E3,2.954E3,5.91E2,5.79E2,7.72E2,1.132E3,8.53E2,1.115E3,1.839E3,4.42E2,1.49E2],"tree_param":{"num_deleted":"0","num_feature":"40","num_nodes":"15","size_leaf_vector":"1"}},{"base_weights":[1.0119801E-2,-1.754292E1,2.1205494E1,-2.6626322E1,-6.058028E0,1.6766863E1,6.378348E1,-3.7256038E0,-2.2872415E0,-1.18124165E-1,-1.191377E0,1.0602716E0,2.4156544E0,5.7536454E0,1.083676E1],"categories":[],"categories_nodes":[],"categories_segments":[],"categories_sizes":[],"default_left":[0,0,0,0,0,0,0,0,0,0,0,0,0,0,0],"id":7,"left_children":[1,3,5,7,9,11,13,-1,-1,-1,-1,-1,-1,-1,-1],"loss_changes":[2.5607735E6,3.926105E5,5.88195E5,8.3024E4,4.7505117E4,1.28425625E5,7.564925E4,0E0,0E0,0E0,0E0,0E0,0E0,0E0,0E0],"parents":[2147483647,0,0,1,1,2,2,3,3,4,4,5,5,6,6],"right_children":[2,4,6,8,10,12,14,-1,-1,-1,-1,-1,-1,-1,-1],"split_conditions":[3.406452E-1,-6.4223784E-1,1.7166817E0,-1.1382511E0,2.00001E0,3.761219E-1,4.4681516E0,-3.7256038E0,-2.2872415E0,-1.18124165E-1,-1.191377E0,1.0602716E0,2.4156544E0,5.7536454E0,1.083676E1],"split_indices":[2,2,2,1,32,1,1,0,0,0,0,0,0,0,0],"split_type":[0,0,0,0,0,0,0,0,0,0,0,0,0,0,0],"sum_hessian":[6.881E3,3.764E3,3.117E3,2.101E3,1.663E3,2.824E3,2.93E2,5.46E2,1.555E3,9.08E2,7.55E2,1.541E3,1.283E3,2.59E2,3.4E1],"tree_param":{"num_deleted":"0","num_feature":"40","num_nodes":"15","size_leaf_vector":"1"}},{"base_weights":[1.0960493E-2,-1.9965647E1,1.5119574E1,-2.9197428E1,-1.4179776E1,9.585486E0,4.273304E1,-3.935976E0,-2.6403658E0,-2.0171964E0,-1.0298275E0,8.955773E-2,1.3748996E0,3.6608398E0,7.838638E0],"categories":[],"categories_nodes":[],"categories_segments":[],"categories_sizes":[],"default_left":[0,0,0,0,0,0,0,0,0,0,0,0,0,0,0],"id":8,"left_children":[1,3,5,7,9,11,13,-1,-1,-1,-1,-1,-1,-1,-1],"loss_changes":[2.077419E6,1.5790475E5,5.984735E5,3.1355125E4,4.2216094E4,1.1815325E5,1.399405E5,0E0,0E0,0E0,0E0,0E0,0E0,0E0,0E0],"parents":[2147483647,0,0,1,1,2,2,3,3,4,4,5,5,6,6],"right_children":[2,4,6,8,10,12,14,-1,-1,-1,-1,-1,-1,-1,-1],"split_conditions":[-1.1803344E-1,-8.8048536E-1,1.061426E0,-1.2993546E0,-8.88256E-1,4.0617067E-1,3.630413E0,-3.935976E0,-2.6403658E0,-2.0171964E0,-1.0298275E0,8.955773E-2,1.3748996E0,3.6608398E0,7.838638E0],"split_indices":[2,1,2,1,3,2,1,0,0,0,0,0,0,0,0],"split_type":[0,0,0,0,0,0,0,0,0,0,0,0,0,0,0],"sum_hessian":[6.881E3,2.963E3,3.918E3,1.14E3,1.823E3,3.265E3,6.53E2,2.43E2,8.97E2,7.15E2,1.108E3,1.058E3,2.207E3,5.59E2,9.4E1],"tree_param":{"num_deleted":"0","num_feature":"40","num_nodes":"15","size_leaf_vector":"1"}},{"base_weights":[1.0353011E-2,-1.4240381E1,1.721818E1,-2.3317347E1,-6.1496296E0,1.3514206E1,5.2884438E1,-3.0486915E0,-1.9322904E0,-1.330354E0,-1.1743794E-1,7.4247116E-1,1.886187E0,4.891107E0,1.0761029E1],"categories":[],"categories_nodes":[],"categories_segments":[],"categories_sizes":[],"default_left":[0,0,0,0,0,0,0,0,0,0,0,0,0,0,0],"id":9,"left_children":[1,3,5,7,9,11,13,-1,-1,-1,-1,-1,-1,-1,-1],"loss_changes":[1.687878E6,2.763563E5,4.1119462E5,5.0215438E4,7.088461E4,9.188744E4,5.844825E4,0E0,0E0,0E0,0E0,0E0,0E0,0E0,0E0],"parents":[2147483647,0,0,1,1,2,2,3,3,4,4,5,5,6,6],"right_children":[2,4,6,8,10,12,14,-1,-1,-1,-1,-1,-1,-1,-1],"split_conditions":[3.406452E-1,-6.227197E-1,2.1482606E0,-1.085669E0,-7.1058434E-1,3.1168056E-1,5.015903E0,-3.0486915E0,-1.9322904E0,-1.330354E0,-1.1743794E-1,7.4247116E-1,1.886187E0,4.891107E0,1.0761029E1],"split_indices":[2,1,1,3,3,1,1,0,0,0,0,0,0,0,0],"split_type":[0,0,0,0,0,0,0,0,0,0,0,0,0,0,0],"sum_hessian":[6.881E3,3.764E3,3.117E3,1.773E3,1.991E3,2.825E3,2.92E2,6.32E2,1.141E3,8.16E2,1.175E3,1.322E3,1.503E3,2.74E2,1.8E1],"tree_param":{"num_deleted":"0","num_feature":"40","num_nodes":"15","size_leaf_vector":"1"}},{"base_weights":[1.1038734E-2,-1.4716702E1,1.3622976E1,-2.2043352E1,-8.244862E0,9.36304E0,3.820476E1,-3.1855068E0,-1.975982E0,-2.905857E-1,-1.7535692E0,-1.06284015E-1,1.2072228E0,3.2820776E0,6.8389435E0],"categories":[],"categories_nodes":[],"categories_segments":[],"categories_sizes":[],"default_left":[0,0,0,0,0,0,0,0,0,0,0,0,0,0,0],"id":10,"left_children":[1,3,5,7,9,11,13,-1,-1,-1,-1,-1,-1,-1,-1],"loss_changes":[1.3798564E6,1.5657856E5,3.7421438E5,3.4098875E4,8.71029E4,8.616206E4,8.356275E4,0E0,0E0,0E0,0E0,0E0,0E0,0E0,0E0],"parents":[2147483647,0,0,1,1,2,2,3,3,4,4,5,5,6,6],"right_children":[2,4,6,8,10,12,14,-1,-1,-1,-1,-1,-1,-1,-1],"split_conditions":[-7.49678E-2,-7.1938187E-1,1.3890541E0,-1.2671337E0,2.00001E0,-1.3808666E-1,3.8559582E0,-3.1855068E0,-1.975982E0,-2.905857E-1,-1.7535692E0,-1.06284015E-1,1.2072228E0,3.2820776E0,6.8389435E0],"split_indices":[1,1,2,1,32,3,1,0,0,0,0,0,0,0,0],"split_type":[0,0,0,0,0,0,0,0,0,0,0,0,0,0,0],"sum_hessian":[6.881E3,3.305E3,3.576E3,1.549E3,1.756E3,3.049E3,5.27E2,2.9E2,1.259E3,1.116E3,6.4E2,6.29E2,2.42E3,4.49E2,7.8E1],"tree_param":{"num_deleted":"0","num_feature":"40","num_nodes":"15","size_leaf_vector":"1"}},{"base_weights":[1.0516289E-2,-1.468556E1,1.1125382E1,-2.1456005E1,-1.00869875E1,6.968311E0,3.1868305E1,-2.6036077E0,-1.7695744E0,-1.6464045E0,-8.239026E-1,2.4947397E-1,1.2005279E0,2.5440497E0,5.329614E0],"categories":[],"categories_nodes":[],"categories_segments":[],"categories_sizes":[],"default_left":[0,0,0,0,0,0,0,0,0,0,0,0,0,0,0],"id":11,"left_children":[1,3,5,7,9,11,13,-1,-1,-1,-1,-1,-1,-1,-1],"loss_changes":[1.1243031E6,9.206594E4,3.377126E5,2.01715E4,2.0687656E4,7.356358E4,8.8722125E4,0E0,0E0,0E0,0E0,0E0,0E0,0E0,0E0],"parents":[2147483647,0,0,1,1,2,2,3,3,4,4,5,5,6,6],"right_children":[2,4,6,8,10,12,14,-1,-1,-1,-1,-1,-1,-1,-1],"split_conditions":[-1.1803344E-1,-1.035391E0,1.061426E0,-6.0738844E-1,-4.8972073E-1,5.372219E-1,2.437462E0,-2.6036077E0,-1.7695744E0,-1.6464045E0,-8.239026E-1,2.4947397E-1,1.2005279E0,2.5440497E0,5.329614E0],"split_indices":[2,2,2,0,0,2,2,0,0,0,0,0,0,0,0],"split_type":[0,0,0,0,0,0,0,0,0,0,0,0,0,0,0],"sum_hessian":[6.881E3,2.963E3,3.918E3,1.197E3,1.766E3,3.265E3,6.53E2,5.37E2,6.6E2,3.95E2,1.371E3,1.73E3,1.535E3,5.04E2,1.49E2],"tree_param":{"num_deleted":"0","num_feature":"40","num_nodes":"15","size_leaf_vector":"1"}},{"base_weights":[9.821874E-3,-1.2064853E1,1.1169695E1,-1.664474E1,-5.109163E0,8.612075E0,3.9595108E1,-2.2503002E0,-1.3566393E0,-3.76495E-2,-1.3092955E0,4.3972299E-1,1.4704934E0,3.8130128E0,1.6947643E1],"categories":[],"categories_nodes":[],"categories_segments":[],"categories_sizes":[],"default_left":[0,0,0,0,0,0,0,0,0,0,0,0,0,0,0],"id":12,"left_children":[1,3,5,7,9,11,13,-1,-1,-1,-1,-1,-1,-1,-1],"loss_changes":[9.274968E5,1.0523178E5,2.5971194E5,3.5636E4,4.964409E4,8.42443E4,4.966853E4,0E0,0E0,0E0,0E0,0E0,0E0,0E0,0E0],"parents":[2147483647,0,0,1,1,2,2,3,3,4,4,5,5,6,6],"right_children":[2,4,6,8,10,12,14,-1,-1,-1,-1,-1,-1,-1,-1],"split_conditions":[-7.49678E-2,-5.2605766E-1,2.11604E0,-1.085669E0,2.00001E0,6.6827285E-1,9.720126E0,-2.2503002E0,-1.3566393E0,-3.76495E-2,-1.3092955E0,4.3972299E-1,1.4704934E0,3.8130128E0,1.6947643E1],"split_indices":[1,1,1,3,32,2,1,0,0,0,0,0,0,0,0],"split_type":[0,0,0,0,0,0,0,0,0,0,0,0,0,0,0],"sum_hessian":[6.881E3,3.305E3,3.576E3,1.992E3,1.313E3,3.282E3,2.94E2,6.84E2,1.308E3,8.25E2,4.88E2,1.941E3,1.341E3,2.92E2,2E0],"tree_param":{"num_deleted":"0","num_feature":"40","num_nodes":"15","size_leaf_vector":"1"}},{"base_weights":[1.1413237E-2,-9.528112E0,1.1530433E1,-1.4042649E1,-2.029039E0,9.085396E0,3.771149E1,-1.8507618E0,-1.050824E0,2.8600645E-1,-6.053488E-1,6.036944E-1,1.5412561E0,3.6199708E0,1.58178E1],"categories":[],"categories_nodes":[],"categories_segments":[],"categories_sizes":[],"default_left":[0,0,0,0,0,0,0,0,0,0,0,0,0,0,0],"id":13,"left_children":[1,3,5,7,9,11,13,-1,-1,-1,-1,-1,-1,-1,-1],"loss_changes":[7.5634525E5,1.2743497E5,1.99252E5,3.689097E4,2.7878459E4,5.4935797E4,4.271775E4,0E0,0E0,0E0,0E0,0E0,0E0,0E0,0E0],"parents":[2147483647,0,0,1,1,2,2,3,3,4,4,5,5,6,6],"right_children":[2,4,6,8,10,12,14,-1,-1,-1,-1,-1,-1,-1,-1],"split_conditions":[3.406452E-1,-3.6495414E-1,1.9132578E0,-9.415575E-1,2.00001E0,5.050049E-1,9.720126E0,-1.8507618E0,-1.050824E0,2.8600645E-1,-6.053488E-1,6.036944E-1,1.5412561E0,3.6199708E0,1.58178E1],"split_indices":[2,1,2,3,32,1,1,0,0,0,0,0,0,0,0],"split_type":[0,0,0,0,0,0,0,0,0,0,0,0,0,0,0],"sum_hessian":[6.881E3,3.764E3,3.117E3,2.349E3,1.415E3,2.852E3,2.65E2,1.036E3,1.313E3,6.39E2,7.76E2,1.926E3,9.26E2,2.63E2,2E0],"tree_param":{"num_deleted":"0","num_feature":"40","num_nodes":"15","size_leaf_vector":"1"}},{"base_weights":[1.2939029E-2,-9.630848E0,9.410509E0,-1.5426733E1,-5.56978E0,6.8034077E0,2.8792639E1,-1.3499682E0,-2.369909E0,-1.9121723E-1,-1.2192968E0,9.3470305E-1,-2.4605766E-1,2.6440392E0,7.61792E0],"categories":[],"categories_nodes":[],"categories_segments":[],"categories_sizes":[],"default_left":[0,0,0,0,0,0,0,0,0,0,0,0,0,0,0],"id":14,"left_children":[1,3,5,7,9,11,13,-1,-1,-1,-1,-1,-1,-1,-1],"loss_changes":[6.237936E5,7.987091E4,1.7595578E5,2.1981906E4,4.8402492E4,7.2459E4,4.402075E4,0E0,0E0,0E0,0E0,0E0,0E0,0E0,0E0],"parents":[2147483647,0,0,1,1,2,2,3,3,4,4,5,5,6,6],"right_children":[2,4,6,8,10,12,14,-1,-1,-1,-1,-1,-1,-1,-1],"split_conditions":[-4.2746972E-2,-7.838232E-1,1.5682881E0,2.00001E0,2.00001E0,2.00001E0,5.015903E0,-1.3499682E0,-2.369909E0,-1.9121723E-1,-1.2192968E0,9.3470305E-1,-2.4605766E-1,2.6440392E0,7.61792E0],"split_indices":[1,1,1,32,32,32,1,0,0,0,0,0,0,0,0],"split_type":[0,0,0,0,0,0,0,0,0,0,0,0,0,0,0],"sum_hessian":[6.881E3,3.396E3,3.485E3,1.398E3,1.998E3,3.073E3,4.12E2,1.136E3,2.62E2,1.288E3,7.1E2,2.411E3,6.62E2,3.94E2,1.8E1],"tree_param":{"num_deleted":"0","num_feature":"40","num_nodes":"15","size_leaf_vector":"1"}},{"base_weights":[1.2491632E-2,-6.940988E0,1.0713305E1,-1.1272166E1,-5.352625E-1,8.469684E0,3.1304226E1,-1.951352E0,-9.651732E-1,1.6550475E-1,-7.027628E-1,-5.7670894E0,8.73761E-1,2.9717696E0,1.277925E1],"categories":[],"categories_nodes":[],"categories_segments":[],"categories_sizes":[],"default_left":[0,0,0,0,0,0,0,0,0,0,0,0,0,0,0],"id":15,"left_children":[1,3,5,7,9,11,13,-1,-1,-1,-1,-1,-1,-1,-1],"loss_changes":[5.121495E5,1.1574331E5,1.2497825E5,3.3051188E4,2.3958605E4,4.384897E4,3.692197E4,0E0,0E0,0E0,0E0,0E0,0E0,0E0,0E0],"parents":[2147483647,0,0,1,1,2,2,3,3,4,4,5,5,6,6],"right_children":[2,4,6,8,10,12,14,-1,-1,-1,-1,-1,-1,-1,-1],"split_conditions":[1.5057705E-1,-3.0051264E-1,1.9132578E0,-1.2026924E0,2.00001E0,2.00001E0,5.0584836E0,-1.951352E0,-9.651732E-1,1.6550475E-1,-7.027628E-1,-5.7670894E0,8.73761E-1,2.9717696E0,1.277925E1],"split_indices":[1,1,2,1,32,33,2,0,0,0,0,0,0,0,0],"split_type":[0,0,0,0,0,0,0,0,0,0,0,0,0,0,0],"sum_hessian":[6.881E3,4.171E3,2.71E3,2.488E3,1.683E3,2.445E3,2.65E2,4.07E2,2.081E3,1.259E3,4.24E2,9E0,2.436E3,2.62E2,3E0],"tree_param":{"num_deleted":"0","num_feature":"40","num_nodes":"15","size_leaf_vector":"1"}},{"base_weights":[1.2317302E-2,-6.544961E0,9.230549E0,-1.0491689E1,-1.2834399E0,7.594119E0,3.206654E1,-1.920302E0,-9.224014E-1,2.1862565E-1,-4.9671632E-1,5.071789E-1,1.437023E0,-3.0329509E0,3.4959972E0],"categories":[],"categories_nodes":[],"categories_segments":[],"categories_sizes":[],"default_left":[0,0,0,0,0,0,0,0,0,0,0,0,0,0,0],"id":16,"left_children":[1,3,5,7,9,11,13,-1,-1,-1,-1,-1,-1,-1,-1],"loss_changes":[4.1605334E5,8.3506516E4,1.0667061E5,2.52E4,2.2058775E4,4.557875E4,3.5543188E4,0E0,0E0,0E0,0E0,0E0,0E0,0E0,0E0],"parents":[2147483647,0,0,1,1,2,2,3,3,4,4,5,5,6,6],"right_children":[2,4,6,8,10,12,14,-1,-1,-1,-1,-1,-1,-1,-1],"split_conditions":[4.0617067E-1,-3.9717484E-1,2.6960127E0,-1.2671337E0,2.00001E0,6.661084E-1,1.1576275E0,-1.920302E0,-9.224014E-1,2.1862565E-1,-4.9671632E-1,5.071789E-1,1.437023E0,-3.0329509E0,3.4959972E0],"split_indices":[2,1,1,1,32,1,0,0,0,0,0,0,0,0,0],"split_type":[0,0,0,0,0,0,0,0,0,0,0,0,0,0,0],"sum_hessian":[6.881E3,4.021E3,2.86E3,2.297E3,1.724E3,2.67E3,1.9E2,2.9E2,2.007E3,8.88E2,8.36E2,1.947E3,7.23E2,8E0,1.82E2],"tree_param":{"num_deleted":"0","num_feature":"40","num_nodes":"15","size_leaf_vector":"1"}},{"base_weights":[1.0983515E-2,-5.7181897E0,8.827693E0,-1.0512768E1,-1.9672966E0,7.0032754E0,2.5999401E1,-1.7138767E0,-9.171985E-1,-6.7389005E-1,2.2797493E-2,-5.272138E0,7.2448814E-1,2.4669507E0,1.3170403E1],"categories":[],"categories_nodes":[],"categories_segments":[],"categories_sizes":[],"default_left":[0,0,0,0,0,0,0,0,0,0,0,0,0,0,0],"id":17,"left_children":[1,3,5,7,9,11,13,-1,-1,-1,-1,-1,-1,-1,-1],"loss_changes":[3.4767716E5,7.5008375E4,8.4749125E4,1.61094375E4,2.4533902E4,3.57639E4,3.3300734E4,0E0,0E0,0E0,0E0,0E0,0E0,0E0,0E0],"parents":[2147483647,0,0,1,1,2,2,3,3,4,4,5,5,6,6],"right_children":[2,4,6,8,10,12,14,-1,-1,-1,-1,-1,-1,-1,-1],"split_conditions":[1.5057705E-1,-7.3427385E-1,1.9787836E0,-7.250562E-1,-5.2605766E-1,2.00001E0,9.720126E0,-1.7138767E0,-9.171985E-1,-6.7389005E-1,2.2797493E-2,-5.272138E0,7.2448814E-1,2.4669507E0,1.3170403E1],"split_indices":[1,3,2,0,1,33,1,0,0,0,0,0,0,0,0],"split_type":[0,0,0,0,0,0,0,0,0,0,0,0,0,0,0],"sum_hessian":[6.881E3,4.171E3,2.71E3,1.83E3,2.341E3,2.451E3,2.59E2,3.06E2,1.524E3,7.37E2,1.604E3,9E0,2.442E3,2.57E2,2E0],"tree_param":{"num_deleted":"0","num_feature":"40","num_nodes":"15","size_leaf_vector":"1"}},{"base_weights":[1.1021115E-2,-7.0255923E0,5.87955E0,-1.159036E1,-4.6891475E0,2.6714654E0,1.4223548E1,-1.9576778E0,-1.0240661E0,-1.9675656E-1,-1.022108E0,-4.7891765E0,2.9139286E-1,1.2833802E0,4.2125273E0],"categories":[],"categories_nodes":[],"categories_segments":[],"categories_sizes":[],"default_left":[0,0,0,0,0,0,0,0,0,0,0,0,0,0,0],"id":18,"left_children":[1,3,5,7,9,11,13,-1,-1,-1,-1,-1,-1,-1,-1],"loss_changes":[2.8423053E5,3.3328125E4,1.0042326E5,1.121475E4,3.1175102E4,3.338791E4,3.9864297E4,0E0,0E0,0E0,0E0,0E0,0E0,0E0,0E0],"parents":[2147483647,0,0,1,1,2,2,3,3,4,4,5,5,6,6],"right_children":[2,4,6,8,10,12,14,-1,-1,-1,-1,-1,-1,-1,-1],"split_conditions":[-1.3940914E-1,-9.12706E-1,8.6484957E-1,-1.3637959E0,2.00001E0,2.00001E0,4.242606E0,-1.9576778E0,-1.0240661E0,-1.9675656E-1,-1.022108E0,-4.7891765E0,2.9139286E-1,1.2833802E0,4.2125273E0],"split_indices":[1,1,2,1,32,33,1,0,0,0,0,0,0,0,0],"split_type":[0,0,0,0,0,0,0,0,0,0,0,0,0,0,0],"sum_hessian":[6.881E3,3.129E3,3.752E3,1.058E3,2.071E3,2.711E3,1.041E3,1.51E2,9.07E2,1.389E3,6.82E2,1.2E1,2.699E3,9.93E2,4.8E1],"tree_param":{"num_deleted":"0","num_feature":"40","num_nodes":"15","size_leaf_vector":"1"}},{"base_weights":[9.452096E-3,-4.35203E0,7.836387E0,-8.196616E0,-9.093174E-1,6.405723E0,2.4351233E1,-6.40347E-1,-1.3878841E0,1.252765E-1,-6.11277E-1,-4.89321E0,6.6232604E-1,-3.0967176E0,2.6869926E0],"categories":[],"categories_nodes":[],"categories_segments":[],"categories_sizes":[],"default_left":[0,0,0,0,0,0,0,0,0,0,0,0,0,0,0],"id":19,"left_children":[1,3,5,7,9,11,13,-1,-1,-1,-1,-1,-1,-1,-1],"loss_changes":[2.3496517E5,5.8494805E4,5.8037797E4,2.118589E4,2.625459E4,2.7626383E4,2.8140797E4,0E0,0E0,0E0,0E0,0E0,0E0,0E0,0E0],"parents":[2147483647,0,0,1,1,2,2,3,3,4,4,5,5,6,6],"right_children":[2,4,6,8,10,12,14,-1,-1,-1,-1,-1,-1,-1,-1],"split_conditions":[2.150184E-1,-4.93837E-1,2.663792E0,2.00001E0,2.00001E0,2.00001E0,1.1576275E0,-6.40347E-1,-1.3878841E0,1.252765E-1,-6.11277E-1,-4.89321E0,6.6232604E-1,-3.0967176E0,2.6869926E0],"split_indices":[1,1,1,32,32,33,0,0,0,0,0,0,0,0,0],"split_type":[0,0,0,0,0,0,0,0,0,0,0,0,0,0,0],"sum_hessian":[6.881E3,4.419E3,2.462E3,2.087E3,2.332E3,2.267E3,1.95E2,1.588E3,4.99E2,1.648E3,6.84E2,8E0,2.259E3,8E0,1.87E2],"tree_param":{"num_deleted":"0","num_feature":"40","num_nodes":"15","size_leaf_vector":"1"}},{"base_weights":[7.470148E-3,-4.079765E0,6.896603E0,-8.955051E0,-1.9503329E0,3.4488153E0,1.2946913E1,-7.5708854E-1,-1.5175252E0,4.8116382E-2,-5.52411E-1,3.8694063E-1,-2.0813277E0,-4.357231E0,1.3670834E0],"categories":[],"categories_nodes":[],"categories_segments":[],"categories_sizes":[],"default_left":[0,0,0,0,0,0,0,0,0,0,0,0,0,0,0],"id":20,"left_children":[1,3,5,7,9,11,13,-1,-1,-1,-1,-1,-1,-1,-1],"loss_changes":[1.9380808E5,4.4831E4,5.3420008E4,1.1189781E4,2.6141057E4,1.6754557E4,3.8647062E4,0E0,0E0,0E0,0E0,0E0,0E0,0E0,0E0],"parents":[2147483647,0,0,1,1,2,2,3,3,4,4,5,5,6,6],"right_children":[2,4,6,8,10,12,14,-1,-1,-1,-1,-1,-1,-1,-1],"split_conditions":[4.7169614E-1,-8.1604403E-1,6.338876E-1,2.00001E0,2.00001E0,2.00001E0,-3.72053E-1,-7.5708854E-1,-1.5175252E0,4.8116382E-2,-5.52411E-1,3.8694063E-1,-2.0813277E0,-4.357231E0,1.3670834E0],"split_indices":[2,1,1,32,32,32,0,0,0,0,0,0,0,0,0],"split_type":[0,0,0,0,0,0,0,0,0,0,0,0,0,0,0],"sum_hessian":[6.881E3,4.319E3,2.562E3,1.312E3,3.007E3,1.633E3,9.29E2,1.075E3,2.37E2,1.79E3,1.217E3,1.606E3,2.7E1,1.1E1,9.18E2],"tree_param":{"num_deleted":"0","num_feature":"40","num_nodes":"15","size_leaf_vector":"1"}},{"base_weights":[5.6389896E-3,-4.6896057E0,4.992049E0,-1.0490457E1,-3.4347274E0,3.1125998E0,1.36512375E1,-2.0297372E0,-9.573057E-1,-1.6372067E-1,-7.459355E-1,4.9084517E-1,-4.651094E-1,1.3103286E0,1.1741268E1],"categories":[],"categories_nodes":[],"categories_segments":[],"categories_sizes":[],"default_left":[0,0,0,0,0,0,0,0,0,0,0,0,0,0,0],"id":21,"left_children":[1,3,5,7,9,11,13,-1,-1,-1,-1,-1,-1,-1,-1],"loss_changes":[1.6114766E5,2.576932E4,5.4281812E4,5.473711E3,2.1083152E4,3.8280895E4,3.2291E4,0E0,0E0,0E0,0E0,0E0,0E0,0E0,0E0],"parents":[2147483647,0,0,1,1,2,2,3,3,4,4,5,5,6,6],"right_children":[2,4,6,8,10,12,14,-1,-1,-1,-1,-1,-1,-1,-1],"split_conditions":[-1.0526456E-2,-1.2974932E0,1.0849776E0,-1.460458E0,2.00001E0,2.00001E0,9.720126E0,-2.0297372E0,-9.573057E-1,-1.6372067E-1,-7.459355E-1,4.9084517E-1,-4.651094E-1,1.3103286E0,1.1741268E1],"split_indices":[1,2,1,1,32,32,1,0,0,0,0,0,0,0,0],"split_type":[0,0,0,0,0,0,0,0,0,0,0,0,0,0,0],"sum_hessian":[6.881E3,3.544E3,3.337E3,6.29E2,2.915E3,2.743E3,5.94E2,5.2E1,5.77E2,2.016E3,8.99E2,2.228E3,5.15E2,5.92E2,2E0],"tree_param":{"num_deleted":"0","num_feature":"40","num_nodes":"15","size_leaf_vector":"1"}},{"base_weights":[6.4104963E-3,-5.151615E0,3.784374E0,-9.446152E0,-3.9632287E0,1.566663E0,9.980606E0,-1.8305928E0,-8.6174077E-1,-2.203983E-1,-7.8448206E-1,-3.979677E0,1.7648517E-1,9.685109E-1,1.0958517E1],"categories":[],"categories_nodes":[],"categories_segments":[],"categories_sizes":[],"default_left":[0,0,0,0,0,0,0,0,0,0,0,0,0,0,0],"id":22,"left_children":[1,3,5,7,9,11,13,-1,-1,-1,-1,-1,-1,-1,-1],"loss_changes":[1.3412788E5,1.4813953E4,5.4579152E4,4.4680156E3,1.5558914E4,2.406507E4,2.9754836E4,0E0,0E0,0E0,0E0,0E0,0E0,0E0,0E0],"parents":[2147483647,0,0,1,1,2,2,3,3,4,4,5,5,6,6],"right_children":[2,4,6,8,10,12,14,-1,-1,-1,-1,-1,-1,-1,-1],"split_conditions":[-2.038505E-1,-1.2974932E0,8.6484957E-1,-1.460458E0,2.00001E0,2.00001E0,9.720126E0,-1.8305928E0,-8.6174077E-1,-2.203983E-1,-7.8448206E-1,-3.979677E0,1.7648517E-1,9.685109E-1,1.0958517E1],"split_indices":[1,2,2,1,32,33,1,0,0,0,0,0,0,0,0],"split_type":[0,0,0,0,0,0,0,0,0,0,0,0,0,0,0],"sum_hessian":[6.881E3,2.909E3,3.972E3,6.29E2,2.28E3,2.926E3,1.046E3,5.2E1,5.77E2,1.57E3,7.1E2,1.3E1,2.913E3,1.044E3,2E0],"tree_param":{"num_deleted":"0","num_feature":"40","num_nodes":"15","size_leaf_vector":"1"}},{"base_weights":[6.4144027E-3,-2.6873326E0,6.1165867E0,-6.2533813E0,-7.1150553E-1,5.007182E0,2.0549843E1,-5.002187E-1,-1.1007221E0,7.5140536E-2,-4.437986E-1,-1.6627102E0,5.583135E-1,1.8754311E0,1.0227948E1],"categories":[],"categories_nodes":[],"categories_segments":[],"categories_sizes":[],"default_left":[0,0,0,0,0,0,0,0,0,0,0,0,0,0,0],"id":23,"left_children":[1,3,5,7,9,11,13,-1,-1,-1,-1,-1,-1,-1,-1],"loss_changes":[1.1328906E5,3.3653793E4,3.3619055E4,1.0074344E4,1.6766725E4,2.4477676E4,2.0094047E4,0E0,0E0,0E0,0E0,0E0,0E0,0E0,0E0],"parents":[2147483647,0,0,1,1,2,2,3,3,4,4,5,5,6,6],"right_children":[2,4,6,8,10,12,14,-1,-1,-1,-1,-1,-1,-1,-1],"split_conditions":[2.7946004E-1,-6.549405E-1,2.437462E0,2.00001E0,2.00001E0,-3.72053E-1,9.720126E0,-5.002187E-1,-1.1007221E0,7.5140536E-2,-4.437986E-1,-1.6627102E0,5.583135E-1,1.8754311E0,1.0227948E1],"split_indices":[1,1,2,32,32,0,1,0,0,0,0,0,0,0,0],"split_type":[0,0,0,0,0,0,0,0,0,0,0,0,0,0,0],"sum_hessian":[6.881E3,4.776E3,2.105E3,1.702E3,3.074E3,1.956E3,1.49E2,1.349E3,3.53E2,2.208E3,8.66E2,5E1,1.906E3,1.47E2,2E0],"tree_param":{"num_deleted":"0","num_feature":"40","num_nodes":"15","size_leaf_vector":"1"}},{"base_weights":[7.0858006E-3,-2.7227793E0,4.905988E0,-5.6289835E0,-9.0085554E-1,4.0177684E0,1.8575552E1,-1.2783737E0,-4.9246335E-1,4.8524253E-2,-4.048933E-1,-1.4488785E0,4.416181E-1,1.6891556E0,9.546085E0],"categories":[],"categories_nodes":[],"categories_segments":[],"categories_sizes":[],"default_left":[0,0,0,0,0,0,0,0,0,0,0,0,0,0,0],"id":24,"left_children":[1,3,5,7,9,11,13,-1,-1,-1,-1,-1,-1,-1,-1],"loss_changes":[9.20487E4,2.339831E4,2.9830074E4,8.51923E3,1.1862077E4,1.7125676E4,1.7808703E4,0E0,0E0,0E0,0E0,0E0,0E0,0E0,0E0],"parents":[2147483647,0,0,1,1,2,2,3,3,4,4,5,5,6,6],"right_children":[2,4,6,8,10,12,14,-1,-1,-1,-1,-1,-1,-1,-1],"split_conditions":[2.150184E-1,-6.549405E-1,2.437462E0,-1.3637959E0,2.00001E0,2.00001E0,9.720126E0,-1.2783737E0,-4.9246335E-1,4.8524253E-2,-4.048933E-1,-1.4488785E0,4.416181E-1,1.6891556E0,9.546085E0],"split_indices":[1,1,2,1,32,35,1,0,0,0,0,0,0,0,0],"split_type":[0,0,0,0,0,0,0,0,0,0,0,0,0,0,0],"sum_hessian":[6.881E3,4.419E3,2.462E3,1.702E3,2.717E3,2.313E3,1.49E2,1.51E2,1.551E3,1.887E3,8.3E2,4.8E1,2.265E3,1.47E2,2E0],"tree_param":{"num_deleted":"0","num_feature":"40","num_nodes":"15","size_leaf_vector":"1"}},{"base_weights":[7.5538657E-3,-1.8195196E0,6.17015E0,-4.4515657E0,1.9691598E-1,5.705237E0,3.8708294E1,-3.2637838E-1,-7.764935E-1,-3.251194E0,3.0595256E-2,-4.942981E0,5.915253E-1,2.9214602E0,8.90968E0],"categories":[],"categories_nodes":[],"categories_segments":[],"categories_sizes":[],"default_left":[0,0,0,0,0,0,0,0,0,0,0,0,0,0,0],"id":25,"left_children":[1,3,5,7,9,11,13,-1,-1,-1,-1,-1,-1,-1,-1],"loss_changes":[7.749922E4,2.8177605E4,2.3589672E4,9.03825E3,1.0734297E4,1.827496E4,7.9212773E3,0E0,0E0,0E0,0E0,0E0,0E0,0E0,0E0],"parents":[2147483647,0,0,1,1,2,2,3,3,4,4,5,5,6,6],"right_children":[2,4,6,8,10,12,14,-1,-1,-1,-1,-1,-1,-1,-1],"split_conditions":[4.0834275E-1,-3.9717484E-1,4.7581377E0,2.00001E0,2.00001E0,2.00001E0,8.100023E0,-3.2637838E-1,-7.764935E-1,-3.251194E0,3.0595256E-2,-4.942981E0,5.915253E-1,2.9214602E0,8.90968E0],"split_indices":[1,1,1,32,33,27,0,0,0,0,0,0,0,0,0],"split_type":[0,0,0,0,0,0,0,0,0,0,0,0,0,0,0],"sum_hessian":[6.881E3,5.308E3,1.573E3,2.302E3,3.006E3,1.552E3,2.1E1,1.696E3,6.06E2,9E0,2.997E3,5E0,1.547E3,1.9E1,2E0],"tree_param":{"num_deleted":"0","num_feature":"40","num_nodes":"15","size_leaf_vector":"1"}},{"base_weights":[7.259352E-3,-1.721882E0,5.4651184E0,-3.396784E0,1.0087037E0,5.0033746E0,3.4220463E1,-3.3817296E0,-3.2637554E-1,7.026844E-2,7.236704E-1,1.6983736E-1,7.5114894E-1,-3.0753825E0,4.0916395E0],"categories":[],"categories_nodes":[],"categories_segments":[],"categories_sizes":[],"default_left":[0,0,0,0,0,0,0,0,0,0,0,0,0,0,0],"id":26,"left_children":[1,3,5,7,9,11,13,-1,-1,-1,-1,-1,-1,-1,-1],"loss_changes":[6.4957668E4,2.3908924E4,2.181648E4,1.300127E4,3.7838218E3,1.3507129E4,1.2569988E4,0E0,0E0,0E0,0E0,0E0,0E0,0E0,0E0],"parents":[2147483647,0,0,1,1,2,2,3,3,4,4,5,5,6,6],"right_children":[2,4,6,8,10,12,14,-1,-1,-1,-1,-1,-1,-1,-1],"split_conditions":[6.6827285E-1,1.984372E-2,3.2237685E0,2.00001E0,5.372254E-1,5.050049E-1,1.1576275E0,-3.3817296E0,-3.2637554E-1,7.026844E-2,7.236704E-1,1.6983736E-1,7.5114894E-1,-3.0753825E0,4.0916395E0],"split_indices":[2,3,2,33,1,1,0,0,0,0,0,0,0,0,0],"split_type":[0,0,0,0,0,0,0,0,0,0,0,0,0,0,0],"sum_hessian":[6.881E3,5.226E3,1.655E3,3.239E3,1.987E3,1.63E3,2.5E1,1.3E1,3.226E3,1.895E3,9.2E1,7.04E2,9.26E2,2E0,2.3E1],"tree_param":{"num_deleted":"0","num_feature":"40","num_nodes":"15","size_leaf_vector":"1"}},{"base_weights":[6.3914815E-3,-1.4682698E0,5.213815E0,-3.0678325E0,9.9614567E-1,4.9753695E0,5.600732E1,-3.1616662E0,-2.934674E-1,-1.7929774E-2,2.6355729E-1,2.4879129E-1,8.135111E-1,3.015269E0,8.042926E0],"categories":[],"categories_nodes":[],"categories_segments":[],"categories_sizes":[],"default_left":[0,0,0,0,0,0,0,0,0,0,0,0,0,0,0],"id":27,"left_children":[1,3,5,7,9,11,13,-1,-1,-1,-1,-1,-1,-1,-1],"loss_changes":[5.2855812E4,2.1147875E4,1.81187E4,1.2273551E4,4.0704104E3,1.187152E4,1.9947832E3,0E0,0E0,0E0,0E0,0E0,0E0,0E0,0E0],"parents":[2147483647,0,0,1,1,2,2,3,3,4,4,5,5,6,6],"right_children":[2,4,6,8,10,12,14,-1,-1,-1,-1,-1,-1,-1,-1],"split_conditions":[7.337983E-1,1.984372E-2,3.8790238E0,2.00001E0,1.1835654E-1,7.3054975E-1,5.511333E0,-3.1616662E0,-2.934674E-1,-1.7929774E-2,2.6355729E-1,2.4879129E-1,8.135111E-1,3.015269E0,8.042926E0],"split_indices":[2,3,2,33,1,1,0,0,0,0,0,0,0,0,0],"split_type":[0,0,0,0,0,0,0,0,0,0,0,0,0,0,0],"sum_hessian":[6.881E3,5.363E3,1.518E3,3.252E3,2.111E3,1.512E3,6E0,1.4E1,3.238E3,1.23E3,8.81E2,8.47E2,6.65E2,4E0,2E0],"tree_param":{"num_deleted":"0","num_feature":"40","num_nodes":"15","size_leaf_vector":"1"}},{"base_weights":[7.0490097E-3,-2.9792442E0,2.1943398E0,-8.379844E0,-2.350655E0,1.6656617E0,1.2654E1,-1.563528E0,-7.5252706E-1,-1.1678463E-1,-5.121176E-1,-3.1160622E0,1.8046094E-1,-3.3845322E0,1.4871705E0],"categories":[],"categories_nodes":[],"categories_segments":[],"categories_sizes":[],"default_left":[0,0,0,0,0,0,0,0,0,0,0,0,0,0,0],"id":28,"left_children":[1,3,5,7,9,11,13,-1,-1,-1,-1,-1,-1,-1,-1],"loss_changes":[4.4959016E4,9.859049E3,2.1948793E4,1.7610312E3,8.540427E3,1.731101E4,2.019959E4,0E0,0E0,0E0,0E0,0E0,0E0,0E0,0E0],"parents":[2147483647,0,0,1,1,2,2,3,3,4,4,5,5,6,6],"right_children":[2,4,6,8,10,12,14,-1,-1,-1,-1,-1,-1,-1,-1],"split_conditions":[-2.038505E-1,-1.4940698E0,2.6960127E0,-1.5248994E0,2.00001E0,2.00001E0,1.1576275E0,-1.563528E0,-7.5252706E-1,-1.1678463E-1,-5.121176E-1,-3.1160622E0,1.8046094E-1,-3.3845322E0,1.4871705E0],"split_indices":[1,2,1,1,32,33,0,0,0,0,0,0,0,0,0],"split_type":[0,0,0,0,0,0,0,0,0,0,0,0,0,0,0],"sum_hessian":[6.881E3,2.909E3,3.972E3,3.02E2,2.607E3,3.782E3,1.9E2,3E1,2.72E2,1.828E3,7.79E2,1.5E1,3.767E3,8E0,1.82E2],"tree_param":{"num_deleted":"0","num_feature":"40","num_nodes":"15","size_leaf_vector":"1"}},{"base_weights":[5.2119927E-3,-1.1449051E0,4.865916E0,-4.445457E0,-2.1638516E-1,-3.2841164E1,5.3842707E0,-1.273984E0,-3.9684692E-1,-3.0449355E0,-1.2562932E-2,4.674492E-2,-3.9534051E0,5.193412E-1,6.59243E0],"categories":[],"categories_nodes":[],"categories_segments":[],"categories_sizes":[],"default_left":[0,0,0,0,0,0,0,0,0,0,0,0,0,0,0],"id":29,"left_children":[1,3,5,7,9,11,13,-1,-1,-1,-1,-1,-1,-1,-1],"loss_changes":[3.8478555E4,1.7056758E4,2.591845E4,4.7840625E3,1.1918063E4,4.0312344E3,1.4678637E4,0E0,0E0,0E0,0E0,0E0,0E0,0E0,0E0],"parents":[2147483647,0,0,1,1,2,2,3,3,4,4,5,5,6,6],"right_children":[2,4,6,8,10,12,14,-1,-1,-1,-1,-1,-1,-1,-1],"split_conditions":[5.050049E-1,-8.482647E-1,-2.5438526E-1,-1.460458E0,2.00001E0,2.00001E0,5.0584836E0,-1.273984E0,-3.9684692E-1,-3.0449355E0,-1.2562932E-2,4.674492E-2,-3.9534051E0,5.193412E-1,6.59243E0],"split_indices":[1,1,0,1,31,24,2,0,0,0,0,0,0,0,0],"split_type":[0,0,0,0,0,0,0,0,0,0,0,0,0,0,0],"sum_hessian":[6.881E3,5.565E3,1.316E3,1.221E3,4.344E3,1.7E1,1.299E3,6.5E1,1.156E3,1.2E1,4.332E3,3E0,1.4E1,1.296E3,3E0],"tree_param":{"num_deleted":"0","num_feature":"40","num_nodes":"15","size_leaf_vector":"1"}},{"base_weights":[4.4658286E-3,-1.150958E0,4.0845766E0,-4.2778316E0,-3.8168004E-1,3.6846986E0,2.6905087E1,-1.2765062E0,-3.8534364E-1,7.809256E-2,-2.9528257E-1,3.9519826E-1,-1.6211723E0,-2.7335794E0,3.2564151E0],"categories":[],"categories_nodes":[],"categories_segments":[],"categories_sizes":[],"default_left":[0,0,0,0,0,0,0,0,0,0,0,0,0,0,0],"id":30,"left_children":[1,3,5,7,9,11,13,-1,-1,-1,-1,-1,-1,-1,-1],"loss_changes":[3.2448217E4,1.2901119E4,1.3762383E4,3.7652656E3,1.2873924E4,8.0091484E3,8.870934E3,0E0,0E0,0E0,0E0,0E0,0E0,0E0,0E0],"parents":[2147483647,0,0,1,1,2,2,3,3,4,4,5,5,6,6],"right_children":[2,4,6,8,10,12,14,-1,-1,-1,-1,-1,-1,-1,-1],"split_conditions":[7.337983E-1,-9.12706E-1,3.2237685E0,-1.4926788E0,2.00001E0,2.00001E0,1.1576275E0,-1.2765062E0,-3.8534364E-1,7.809256E-2,-2.9528257E-1,3.9519826E-1,-1.6211723E0,-2.7335794E0,3.2564151E0],"split_indices":[2,1,2,1,32,5,0,0,0,0,0,0,0,0,0],"split_type":[0,0,0,0,0,0,0,0,0,0,0,0,0,0,0],"sum_hessian":[6.881E3,5.363E3,1.518E3,1.058E3,4.305E3,1.493E3,2.5E1,4.9E1,1.009E3,2.965E3,1.34E3,1.474E3,1.9E1,2E0,2.3E1],"tree_param":{"num_deleted":"0","num_feature":"40","num_nodes":"15","size_leaf_vector":"1"}},{"base_weights":[3.6434073E-3,-1.0905836E0,3.694398E0,-3.6903048E0,-3.3290938E-1,3.548646E0,6.0014825E0,-6.541107E-1,-2.7221313E-1,5.0686847E-2,-2.8332412E-1,-4.1456037E0,3.718812E-1],"categories":[],"categories_nodes":[],"categories_segments":[],"categories_sizes":[],"default_left":[0,0,0,0,0,0,0,0,0,0,0,0,0],"id":31,"left_children":[1,3,5,7,9,11,-1,-1,-1,-1,-1,-1,-1],"loss_changes":[2.7797146E4,1.0456129E4,1.2707684E4,3.2887598E3,8.635497E3,1.2185279E4,0E0,0E0,0E0,0E0,0E0,0E0,0E0],"parents":[2147483647,0,0,1,1,2,2,3,3,4,4,5,5],"right_children":[2,4,6,8,10,12,-1,-1,-1,-1,-1,-1,-1],"split_conditions":[4.0834275E-1,-1.035391E0,5.982524E0,-1.4940698E0,2.00001E0,2.00001E0,6.0014825E0,-6.541107E-1,-2.7221313E-1,5.0686847E-2,-2.8332412E-1,-4.1456037E0,3.718812E-1],"split_indices":[1,2,1,2,32,27,0,0,0,0,0,0,0],"split_type":[0,0,0,0,0,0,0,0,0,0,0,0,0],"sum_hessian":[6.881E3,5.308E3,1.573E3,1.197E3,4.111E3,1.57E3,3E0,3.02E2,8.95E2,3.078E3,1.033E3,5E0,1.565E3],"tree_param":{"num_deleted":"0","num_feature":"40","num_nodes":"13","size_leaf_vector":"1"}},{"base_weights":[3.4324892E-3,-7.617271E-1,4.4838805E0,4.728758E-2,-3.386824E0,-3.487797E1,4.995191E0,-4.8112383E-1,4.6761263E-2,-2.3932104E-1,-1.1087904E0,-2.4152298E-1,-3.7381933E0,4.812831E-1,6.3508954E0],"categories":[],"categories_nodes":[],"categories_segments":[],"categories_sizes":[],"default_left":[0,0,0,0,0,0,0,0,0,0,0,0,0,0,0],"id":32,"left_children":[1,3,5,7,9,11,13,-1,-1,-1,-1,-1,-1,-1,-1],"loss_changes":[2.3596686E4,1.248564E4,2.038086E4,9.181759E3,1.0571341E4,9.664238E2,1.0279553E4,0E0,0E0,0E0,0E0,0E0,0E0,0E0,0E0],"parents":[2147483647,0,0,1,1,2,2,3,3,4,4,5,5,6,6],"right_children":[2,4,6,8,10,12,14,-1,-1,-1,-1,-1,-1,-1,-1],"split_conditions":[6.661084E-1,2.00001E0,-2.5438526E-1,-1.4285443E0,2.00001E0,2.00001E0,9.720126E0,-4.8112383E-1,4.6761263E-2,-2.3932104E-1,-1.1087904E0,-2.4152298E-1,-3.7381933E0,4.812831E-1,6.3508954E0],"split_indices":[1,32,0,2,24,26,1,0,0,0,0,0,0,0,0],"split_type":[0,0,0,0,0,0,0,0,0,0,0,0,0,0,0],"sum_hessian":[6.881E3,5.878E3,1.003E3,4.494E3,1.384E3,1.2E1,9.91E2,3.57E2,4.137E3,1.227E3,1.57E2,1E0,1.1E1,9.89E2,2E0],"tree_param":{"num_deleted":"0","num_feature":"40","num_nodes":"15","size_leaf_vector":"1"}},{"base_weights":[3.240892E-3,-7.219795E-1,4.0320096E0,-2.509415E0,2.0566459E-1,3.7812455E0,4.0855705E1,-1.6463134E-1,-5.3985304E-1,-2.329295E0,2.9771412E-2,-3.5168538E0,3.9648682E-1,2.1632972E0,5.9275026E0],"categories":[],"categories_nodes":[],"categories_segments":[],"categories_sizes":[],"default_left":[0,0,0,0,0,0,0,0,0,0,0,0,0,0,0],"id":33,"left_children":[1,3,5,7,9,11,13,-1,-1,-1,-1,-1,-1,-1,-1],"loss_changes":[2.0110361E4,9.672237E3,9.541285E3,4.9608564E3,8.315157E3,7.6061963E3,1.1961914E3,0E0,0E0,0E0,0E0,0E0,0E0,0E0,0E0],"parents":[2147483647,0,0,1,1,2,2,3,3,4,4,5,5,6,6],"right_children":[2,4,6,8,10,12,14,-1,-1,-1,-1,-1,-1,-1,-1],"split_conditions":[8.6484957E-1,-5.2605766E-1,3.8790238E0,2.00001E0,2.00001E0,2.00001E0,5.511333E0,-1.6463134E-1,-5.3985304E-1,-2.329295E0,2.9771412E-2,-3.5168538E0,3.9648682E-1,2.1632972E0,5.9275026E0],"split_indices":[2,1,2,32,33,27,0,0,0,0,0,0,0,0,0],"split_type":[0,0,0,0,0,0,0,0,0,0,0,0,0,0,0],"sum_hessian":[6.881E3,5.832E3,1.049E3,1.992E3,3.84E3,1.043E3,6E0,1.535E3,4.57E2,1.4E1,3.826E3,4E0,1.039E3,4E0,2E0],"tree_param":{"num_deleted":"0","num_feature":"40","num_nodes":"15","size_leaf_vector":"1"}},{"base_weights":[3.20395E-3,-1.8165803E0,1.3360932E0,-5.211787E0,-1.4214253E0,1.1587936E0,1.8311296E1,-9.4691354E-1,-4.3126056E-1,-8.950679E-1,-1.23455785E-1,-3.0140462E0,1.238262E-1,-2.5816872E0,2.2474492E0],"categories":[],"categories_nodes":[],"categories_segments":[],"categories_sizes":[],"default_left":[0,0,0,0,0,0,0,0,0,0,0,0,0,0,0],"id":34,"left_children":[1,3,5,7,9,11,13,-1,-1,-1,-1,-1,-1,-1,-1],"loss_changes":[1.6695207E4,3.8967432E3,1.1936307E4,1.1190869E3,3.6583325E3,9.819873E3,8.112499E3,0E0,0E0,0E0,0E0,0E0,0E0,0E0,0E0],"parents":[2147483647,0,0,1,1,2,2,3,3,4,4,5,5,6,6],"right_children":[2,4,6,8,10,12,14,-1,-1,-1,-1,-1,-1,-1,-1],"split_conditions":[-2.038505E-1,-1.4940698E0,3.0271924E0,-1.756172E0,2.00001E0,2.00001E0,1.1576275E0,-9.4691354E-1,-4.3126056E-1,-8.950679E-1,-1.23455785E-1,-3.0140462E0,1.238262E-1,-2.5816872E0,2.2474492E0],"split_indices":[1,2,2,2,23,30,0,0,0,0,0,0,0,0,0],"split_type":[0,0,0,0,0,0,0,0,0,0,0,0,0,0,0],"sum_hessian":[6.881E3,2.909E3,3.972E3,3.02E2,2.607E3,3.932E3,4E1,5.1E1,2.51E2,6.2E1,2.545E3,9E0,3.923E3,3E0,3.7E1],"tree_param":{"num_deleted":"0","num_feature":"40","num_nodes":"15","size_leaf_vector":"1"}},{"base_weights":[2.0679461E-3,-6.107822E-1,3.5906575E0,6.5106645E-2,-2.8039298E0,-3.0289762E1,4.0310354E0,-5.1941407E-1,3.035368E-2,-1.9800287E-1,-1.1020688E0,-2.5546265E-1,-3.2388139E0,3.851273E-1,4.746949E0],"categories":[],"categories_nodes":[],"categories_segments":[],"categories_sizes":[],"default_left":[0,0,0,0,0,0,0,0,0,0,0,0,0,0,0],"id":35,"left_children":[1,3,5,7,9,11,13,-1,-1,-1,-1,-1,-1,-1,-1],"loss_changes":[1.5137553E4,8.714766E3,1.5101967E4,5.638141E3,9.354345E3,6.738428E2,7.5633076E3,0E0,0E0,0E0,0E0,0E0,0E0,0E0,0E0],"parents":[2147483647,0,0,1,1,2,2,3,3,4,4,5,5,6,6],"right_children":[2,4,6,8,10,12,14,-1,-1,-1,-1,-1,-1,-1,-1],"split_conditions":[6.661084E-1,2.00001E0,-2.5438526E-1,-1.5595955E0,7.854298E-2,2.00001E0,5.982524E0,-5.1941407E-1,3.035368E-2,-1.9800287E-1,-1.1020688E0,-2.5546265E-1,-3.2388139E0,3.851273E-1,4.746949E0],"split_indices":[1,32,0,2,2,26,1,0,0,0,0,0,0,0,0],"split_type":[0,0,0,0,0,0,0,0,0,0,0,0,0,0,0],"sum_hessian":[6.881E3,5.878E3,1.003E3,4.494E3,1.384E3,1.2E1,9.91E2,1.94E2,4.3E3,1.259E3,1.25E2,1E0,1.1E1,9.88E2,3E0],"tree_param":{"num_deleted":"0","num_feature":"40","num_nodes":"15","size_leaf_vector":"1"}},{"base_weights":[1.8398437E-3,-2.716241E-1,6.9678E0,4.4964522E-1,-2.1652515E0,-2.2536558E1,8.238121E0,-6.153084E-3,6.226093E-1,-1.392332E-1,-9.690753E-1,5.018601E-1,-3.3497071E0,7.6917297E-1,5.0660443E0],"categories":[],"categories_nodes":[],"categories_segments":[],"categories_sizes":[],"default_left":[0,0,0,0,0,0,0,0,0,0,0,0,0,0,0],"id":36,"left_children":[1,3,5,7,9,11,13,-1,-1,-1,-1,-1,-1,-1,-1],"loss_changes":[1.3111682E4,9.046769E3,9.930459E3,1.4164877E4,1.0613446E4,3.4903125E3,5.405131E3,0E0,0E0,0E0,0E0,0E0,0E0,0E0,0E0],"parents":[2147483647,0,0,1,1,2,2,3,3,4,4,5,5,6,6],"right_children":[2,4,6,8,10,12,14,-1,-1,-1,-1,-1,-1,-1,-1],"split_conditions":[1.9787836E0,2.00001E0,9.86179E-2,5.6944627E-1,2.00001E0,2.00001E0,9.720126E0,-6.153084E-3,6.226093E-1,-1.392332E-1,-9.690753E-1,5.018601E-1,-3.3497071E0,7.6917297E-1,5.0660443E0],"split_indices":[2,32,0,1,24,25,1,0,0,0,0,0,0,0,0],"split_type":[0,0,0,0,0,0,0,0,0,0,0,0,0,0,0],"sum_hessian":[6.881E3,6.622E3,2.59E2,4.796E3,1.826E3,1E1,2.49E2,4.407E3,3.89E2,1.657E3,1.69E2,3E0,7E0,2.47E2,2E0],"tree_param":{"num_deleted":"0","num_feature":"40","num_nodes":"15","size_leaf_vector":"1"}},{"base_weights":[2.0172088E-3,-8.754886E-1,1.8562483E0,-3.0439355E0,-4.5211247E-1,1.5445162E0,1.2289754E1,-6.680163E-1,-2.5230306E-1,-1.9962586E0,-4.0699553E-2,-2.7825935E0,1.6535395E-1,9.860239E-1,3.8985982E0],"categories":[],"categories_nodes":[],"categories_segments":[],"categories_sizes":[],"default_left":[0,0,0,0,0,0,0,0,0,0,0,0,0,0,0],"id":37,"left_children":[1,3,5,7,9,11,13,-1,-1,-1,-1,-1,-1,-1,-1],"loss_changes":[1.1199316E4,4.2878403E3,7.1722056E3,1.4283667E3,3.4336655E3,6.9240503E3,3.7665566E3,0E0,0E0,0E0,0E0,0E0,0E0,0E0,0E0],"parents":[2147483647,0,0,1,1,2,2,3,3,4,4,5,5,6,6],"right_children":[2,4,6,8,10,12,14,-1,-1,-1,-1,-1,-1,-1,-1],"split_conditions":[2.4723923E-1,-1.2319677E0,4.049282E0,-1.6906464E0,2.00001E0,2.00001E0,3.8134987E0,-6.680163E-1,-2.5230306E-1,-1.9962586E0,-4.0699553E-2,-2.7825935E0,1.6535395E-1,9.860239E-1,3.8985982E0],"split_indices":[1,2,1,2,33,31,2,0,0,0,0,0,0,0,0],"split_type":[0,0,0,0,0,0,0,0,0,0,0,0,0,0,0],"sum_hessian":[6.881E3,4.671E3,2.21E3,7.62E2,3.909E3,2.147E3,6.3E1,9.4E1,6.68E2,8E0,3.901E3,7E0,2.14E3,5.9E1,4E0],"tree_param":{"num_deleted":"0","num_feature":"40","num_nodes":"15","size_leaf_vector":"1"}},{"base_weights":[1.7122792E-3,-1.3731414E0,1.0087152E0,-4.009894E0,-1.3460447E0,-2.0393602E1,1.0949781E0,-3.5797673E-1,-9.895366E-2,-1.5884031E0,-2.995131E0,7.418107E-2,6.1359984E-1],"categories":[],"categories_nodes":[],"categories_segments":[],"categories_sizes":[],"default_left":[0,0,0,0,0,0,0,0,0,0,0,0,0],"id":38,"left_children":[1,3,5,-1,7,9,11,-1,-1,-1,-1,-1,-1],"loss_changes":[9.529388E3,2.999625E3,7.357382E3,0E0,2.3130107E3,2.138711E2,7.0419697E3,0E0,0E0,0E0,0E0,0E0,0E0],"parents":[2147483647,0,0,1,1,2,2,4,4,5,5,6,6],"right_children":[2,4,6,-1,8,10,12,-1,-1,-1,-1,-1,-1],"split_conditions":[-2.038505E-1,-1.879327E0,2.00001E0,-4.009894E0,-1.4285443E0,6.027474E-1,1.9787836E0,-3.5797673E-1,-9.895366E-2,-1.5884031E0,-2.995131E0,7.418107E-2,6.1359984E-1],"split_indices":[1,1,33,0,2,2,2,0,0,0,0,0,0],"split_type":[0,0,0,0,0,0,0,0,0,0,0,0,0],"sum_hessian":[6.881E3,2.909E3,3.972E3,1E0,2.908E3,1.5E1,3.957E3,3.99E2,2.509E3,1.2E1,3E0,3.699E3,2.58E2],"tree_param":{"num_deleted":"0","num_feature":"40","num_nodes":"13","size_leaf_vector":"1"}},{"base_weights":[3.22542E-4,-2.4207764E0,5.6726947E-2,-1.1374123E-1,7.8503313E0,-2.0044267E0,-6.3191983E-3,-2.5330522E0,8.7175053E-1],"categories":[],"categories_nodes":[],"categories_segments":[],"categories_sizes":[],"default_left":[0,0,0,0,0,0,0,0,0],"id":39,"left_children":[1,-1,3,5,7,-1,-1,-1,-1],"loss_changes":[9.398349E3,0E0,9.124125E3,6.7699595E3,4.450535E3,0E0,0E0,0E0,0E0],"parents":[2147483647,0,0,2,2,3,3,4,4],"right_children":[2,-1,4,6,8,-1,-1,-1,-1],"split_conditions":[2.00001E0,-2.4207764E0,2.437462E0,2.00001E0,2.00001E0,-2.0044267E0,-6.3191983E-3,-2.5330522E0,8.7175053E-1],"split_indices":[31,0,2,33,27,0,0,0,0],"split_type":[0,0,0,0,0,0,0,0,0],"sum_hessian":[6.881E3,1.5E1,6.866E3,6.72E3,1.46E2,1.6E1,6.704E3,3E0,1.43E2],"tree_param":{"num_deleted":"0","num_feature":"40","num_nodes":"9","size_leaf_vector":"1"}},{"base_weights":[-5.973532E-4,-2.1938286E0,5.0517194E-2,-6.5746814E-1,1.6590601E0,-2.055306E-1,-1.7584039E-2,-3.1475108E0,1.753208E-1],"categories":[],"categories_nodes":[],"categories_segments":[],"categories_sizes":[],"default_left":[0,0,0,0,0,0,0,0,0],"id":40,"left_children":[1,-1,3,5,7,-1,-1,-1,-1],"loss_changes":[7.7181353E3,0E0,7.8214004E3,3.2103076E3,6.603047E3,0E0,0E0,0E0,0E0],"parents":[2147483647,0,0,2,2,3,3,4,4],"right_children":[2,-1,4,6,8,-1,-1,-1,-1],"split_conditions":[2.00001E0,-2.1938286E0,2.7946004E-1,-8.482647E-1,2.00001E0,-2.055306E-1,-1.7584039E-2,-3.1475108E0,1.753208E-1],"split_indices":[31,0,1,1,27,0,0,0,0],"split_type":[0,0,0,0,0,0,0,0,0],"sum_hessian":[6.881E3,1.5E1,6.866E3,4.768E3,2.098E3,1.221E3,3.547E3,5E0,2.093E3],"tree_param":{"num_deleted":"0","num_feature":"40","num_nodes":"9","size_leaf_vector":"1"}},{"base_weights":[-1.3245547E-3,-6.1840422E-2,1.5958623E1,-1.9881569E0,-1.5482997E-2,-1.6506613E0,1.9351835E1,-2.5068948E0,2.1184664E-3,1.5168787E0,4.3576903E0],"categories":[],"categories_nodes":[],"categories_segments":[],"categories_sizes":[],"default_left":[0,0,0,0,0,0,0,0,0,0,0],"id":41,"left_children":[1,3,5,-1,7,-1,9,-1,-1,-1,-1],"loss_changes":[6.6478296E3,6.2998467E3,3.183629E3,0E0,6.2859473E3,0E0,1.7710225E3,0E0,0E0,0E0,0E0],"parents":[2147483647,0,0,1,1,2,2,4,4,6,6],"right_children":[2,4,6,-1,8,-1,10,-1,-1,-1,-1],"split_conditions":[3.2237685E0,2.00001E0,1.1576275E0,-1.9881569E0,2.00001E0,-1.6506613E0,8.100023E0,-2.5068948E0,2.1184664E-3,1.5168787E0,4.3576903E0],"split_indices":[2,31,0,0,30,0,0,0,0,0,0],"split_type":[0,0,0,0,0,0,0,0,0,0,0],"sum_hessian":[6.881E3,6.856E3,2.5E1,1.5E1,6.841E3,2E0,2.3E1,9E0,6.832E3,2.1E1,2E0],"tree_param":{"num_deleted":"0","num_feature":"40","num_nodes":"11","size_leaf_vector":"1"}},{"base_weights":[-1.233013E-3,-4.125191E-1,2.2835603E0,1.9124399E-1,-2.0449092E0,2.1714914E0,4.0671773E0,6.905918E-4,5.0395274E-1,-1.3930357E-1,-7.5695896E-1,-2.6130302E0,2.3049565E-1],"categories":[],"categories_nodes":[],"categories_segments":[],"categories_sizes":[],"default_left":[0,0,0,0,0,0,0,0,0,0,0,0,0],"id":42,"left_children":[1,3,5,7,9,11,-1,-1,-1,-1,-1,-1,-1],"loss_changes":[6.467983E3,5.7492617E3,4.428913E3,3.8063323E3,5.661649E3,4.0188384E3,0E0,0E0,0E0,0E0,0E0,0E0,0E0],"parents":[2147483647,0,0,1,1,2,2,3,3,4,4,5,5],"right_children":[2,4,6,8,10,12,-1,-1,-1,-1,-1,-1,-1],"split_conditions":[8.6484957E-1,2.00001E0,9.720126E0,5.6944627E-1,3.406452E-1,2.00001E0,4.0671773E0,6.905918E-4,5.0395274E-1,-1.3930357E-1,-7.5695896E-1,-2.6130302E0,2.3049565E-1],"split_indices":[2,32,1,1,2,27,0,0,0,0,0,0,0],"split_type":[0,0,0,0,0,0,0,0,0,0,0,0,0],"sum_hessian":[6.881E3,5.832E3,1.049E3,4.258E3,1.574E3,1.047E3,2E0,4.103E3,1.55E2,1.409E3,1.65E2,4E0,1.043E3],"tree_param":{"num_deleted":"0","num_feature":"40","num_nodes":"13","size_leaf_vector":"1"}},{"base_weights":[-9.2175876E-4,-1.0825269E0,7.912937E-1,-3.7919476E0,-1.0568286E0,-2.2452502E0,8.4973127E-1,-5.4566664E-1,-9.079684E-2,-1.6604735E0,9.202357E-2],"categories":[],"categories_nodes":[],"categories_segments":[],"categories_sizes":[],"default_left":[0,0,0,0,0,0,0,0,0,0,0],"id":43,"left_children":[1,3,5,-1,7,-1,9,-1,-1,-1,-1],"loss_changes":[5.897797E3,2.7146711E3,5.4156504E3,0E0,1.9003252E3,0E0,4.8934414E3,0E0,0E0,0E0,0E0],"parents":[2147483647,0,0,1,1,2,2,4,4,6,6],"right_children":[2,4,6,-1,8,-1,10,-1,-1,-1,-1],"split_conditions":[-2.038505E-1,-1.879327E0,2.00001E0,-3.7919476E0,-1.6906464E0,-2.2452502E0,2.00001E0,-5.4566664E-1,-9.079684E-2,-1.6604735E0,9.202357E-2],"split_indices":[1,1,30,0,2,0,33,0,0,0,0],"split_type":[0,0,0,0,0,0,0,0,0,0,0],"sum_hessian":[6.881E3,2.909E3,3.972E3,1E0,2.908E3,9E0,3.963E3,9.4E1,2.814E3,1.5E1,3.948E3],"tree_param":{"num_deleted":"0","num_feature":"40","num_nodes":"11","size_leaf_vector":"1"}},{"base_weights":[-2.0292671E-3,-1.5631619E-1,5.261842E0,4.6344322E-1,-1.7769862E0,-2.0247512E0,6.4550457E0,2.4879645E-3,4.9477234E-1,-1.2032022E-1,-7.2620445E-1,5.218354E-1,2.2701404E0],"categories":[],"categories_nodes":[],"categories_segments":[],"categories_sizes":[],"default_left":[0,0,0,0,0,0,0,0,0,0,0,0,0],"id":44,"left_children":[1,3,5,7,9,-1,11,-1,-1,-1,-1,-1,-1],"loss_changes":[5.590014E3,6.7174175E3,6.0965186E3,9.51449E3,5.813655E3,0E0,3.6587817E3,0E0,0E0,0E0,0E0,0E0,0E0],"parents":[2147483647,0,0,1,1,2,2,3,3,4,4,6,6],"right_children":[2,4,6,8,10,-1,12,-1,-1,-1,-1,-1,-1],"split_conditions":[2.663792E0,2.00001E0,1.1576275E0,5.6944627E-1,2.00001E0,-2.0247512E0,3.747973E0,2.4879645E-3,4.9477234E-1,-1.2032022E-1,-7.2620445E-1,5.218354E-1,2.2701404E0],"split_indices":[1,32,0,1,24,0,2,0,0,0,0,0,0],"split_type":[0,0,0,0,0,0,0,0,0,0,0,0,0],"sum_hessian":[6.881E3,6.686E3,1.95E2,4.837E3,1.849E3,8E0,1.87E2,4.407E3,4.3E2,1.675E3,1.74E2,1.75E2,1.2E1],"tree_param":{"num_deleted":"0","num_feature":"40","num_nodes":"13","size_leaf_vector":"1"}},{"base_weights":[-1.7656994E-3,-2.6308483E-1,2.7598753E0,2.8606275E-1,-1.9933603E0,1.0042516E1,1.8632058E0,2.2393025E-3,3.4521937E-1,-1.1057669E-1,-1.2891717E0,5.2532387E-1,1.7024384E0,2.371441E-1,-1.4643826E0],"categories":[],"categories_nodes":[],"categories_segments":[],"categories_sizes":[],"default_left":[0,0,0,0,0,0,0,0,0,0,0,0,0,0,0],"id":45,"left_children":[1,3,5,7,9,11,13,-1,-1,-1,-1,-1,-1,-1,-1],"loss_changes":[4.967256E3,5.975281E3,3.8667114E3,3.9853193E3,1.4640811E4,2.084043E3,4.4895264E3,0E0,0E0,0E0,0E0,0E0,0E0,0E0,0E0],"parents":[2147483647,0,0,1,1,2,2,3,3,4,4,5,5,6,6],"right_children":[2,4,6,8,10,12,14,-1,-1,-1,-1,-1,-1,-1,-1],"split_conditions":[1.0849776E0,2.00001E0,2.00001E0,5.6944627E-1,3.406452E-1,-2.966872E-2,2.00001E0,2.2393025E-3,3.4521937E-1,-1.1057669E-1,-1.2891717E0,5.2532387E-1,1.7024384E0,2.371441E-1,-1.4643826E0],"split_indices":[1,32,32,1,2,4,24,0,0,0,0,0,0,0,0],"split_type":[0,0,0,0,0,0,0,0,0,0,0,0,0,0,0],"sum_hessian":[6.881E3,6.287E3,5.94E2,4.773E3,1.514E3,6.4E1,5.3E2,4.407E3,3.66E2,1.401E3,1.13E2,3.9E1,2.5E1,5.15E2,1.5E1],"tree_param":{"num_deleted":"0","num_feature":"40","num_nodes":"15","size_leaf_vector":"1"}},{"base_weights":[-1.5981453E-3,-6.4758115E-2,1.0538454E1,-1.6692322E0,-2.5779681E-2,-1.5737664E0,1.3027033E1,-1.5316732E0,1.2389746E-3,1.0731802E0,3.622746E0],"categories":[],"categories_nodes":[],"categories_segments":[],"categories_sizes":[],"default_left":[0,0,0,0,0,0,0,0,0,0,0],"id":46,"left_children":[1,3,5,-1,7,-1,9,-1,-1,-1,-1],"loss_changes":[4.5820947E3,4.4339824E3,2.8860132E3,0E0,3.9847468E3,0E0,1.6347266E3,0E0,0E0,0E0,0E0],"parents":[2147483647,0,0,1,1,2,2,4,4,6,6],"right_children":[2,4,6,-1,8,-1,10,-1,-1,-1,-1],"split_conditions":[3.0271924E0,2.00001E0,1.1576275E0,-1.6692322E0,2.00001E0,-1.5737664E0,8.100023E0,-1.5316732E0,1.2389746E-3,1.0731802E0,3.622746E0],"split_indices":[2,31,0,0,33,0,0,0,0,0,0],"split_type":[0,0,0,0,0,0,0,0,0,0,0],"sum_hessian":[6.881E3,6.841E3,4E1,1.5E1,6.826E3,3E0,3.7E1,1.6E1,6.81E3,3.5E1,2E0],"tree_param":{"num_deleted":"0","num_feature":"40","num_nodes":"11","size_leaf_vector":"1"}},{"base_weights":[-1.4472348E-3,-1.4070928E0,4.3753254E-1,-3.5605729E0,-1.3644512E0,-1.8560015E0,4.7373155E-1,-8.6178325E-2,-3.3755624E-1,3.278687E-2,5.486046E-1],"categories":[],"categories_nodes":[],"categories_segments":[],"categories_sizes":[],"default_left":[0,0,0,0,0,0,0,0,0,0,0],"id":47,"left_children":[1,3,5,-1,7,-1,9,-1,-1,-1,-1],"loss_changes":[4.2471533E3,2.3400896E3,3.6157378E3,0E0,1.6519695E3,0E0,3.8262969E3,0E0,0E0,0E0,0E0],"parents":[2147483647,0,0,1,1,2,2,4,4,6,6],"right_children":[2,4,6,-1,8,-1,10,-1,-1,-1,-1],"split_conditions":[-6.8716115E-1,-1.879327E0,2.00001E0,-3.5605729E0,2.00001E0,-1.8560015E0,2.437462E0,-8.6178325E-2,-3.3755624E-1,3.278687E-2,5.486046E-1],"split_indices":[1,1,30,0,32,0,2,0,0,0,0],"split_type":[0,0,0,0,0,0,0,0,0,0,0],"sum_hessian":[6.881E3,1.637E3,5.244E3,1E0,1.636E3,9E0,5.235E3,1.31E3,3.26E2,5.088E3,1.47E2],"tree_param":{"num_deleted":"0","num_feature":"40","num_nodes":"11","size_leaf_vector":"1"}},{"base_weights":[-2.068926E-3,-1.5139136E1,3.32005E-2,-9.3853825E-1,-1.6901263E0,-7.672122E-2,5.0587153E0,3.6604896E-2,-1.2120128E-1,4.4364926E-1,3.3446577E0],"categories":[],"categories_nodes":[],"categories_segments":[],"categories_sizes":[],"default_left":[0,0,0,0,0,0,0,0,0,0,0],"id":48,"left_children":[1,3,5,-1,-1,7,9,-1,-1,-1,-1],"loss_changes":[3.674635E3,3.5966797E0,3.7938098E3,0E0,0E0,3.378911E3,2.4481592E3,0E0,0E0,0E0,0E0],"parents":[2147483647,0,0,1,1,2,2,5,5,6,6],"right_children":[2,4,6,-1,-1,8,10,-1,-1,-1,-1],"split_conditions":[2.00001E0,-8.1604403E-1,2.437462E0,-9.3853825E-1,-1.6901263E0,2.00001E0,9.720126E0,3.6604896E-2,-1.2120128E-1,4.4364926E-1,3.3446577E0],"split_indices":[31,1,2,0,0,32,1,0,0,0,0],"split_type":[0,0,0,0,0,0,0,0,0,0,0],"sum_hessian":[6.881E3,1.5E1,6.866E3,5E0,1E1,6.72E3,1.46E2,4.835E3,1.885E3,1.44E2,2E0],"tree_param":{"num_deleted":"0","num_feature":"40","num_nodes":"11","size_leaf_vector":"1"}},{"base_weights":[-1.7059812E-3,-1.2713987E0,3.948161E-1,-3.3764844E0,-1.2309233E0,-2.3746133E0,4.2238307E-1,-4.8604247E-1,-1.006663E-1,3.5777275E-2,1.2883712E0],"categories":[],"categories_nodes":[],"categories_segments":[],"categories_sizes":[],"default_left":[0,0,0,0,0,0,0,0,0,0,0],"id":49,"left_children":[1,3,5,-1,7,-1,9,-1,-1,-1,-1],"loss_changes":[3.465322E3,2.1127131E3,3.5005386E3,0E0,1.3275483E3,0E0,4.214275E3,0E0,0E0,0E0,0E0],"parents":[2147483647,0,0,1,1,2,2,4,4,6,6],"right_children":[2,4,6,-1,8,-1,10,-1,-1,-1,-1],"split_conditions":[-6.8716115E-1,-1.879327E0,2.00001E0,-3.3764844E0,-1.6906464E0,-2.3746133E0,3.1582434E0,-4.8604247E-1,-1.006663E-1,3.5777275E-2,1.2883712E0],"split_indices":[1,1,27,0,2,0,2,0,0,0,0],"split_type":[0,0,0,0,0,0,0,0,0,0,0],"sum_hessian":[6.881E3,1.637E3,5.244E3,1E0,1.636E3,5E0,5.239E3,9.4E1,1.542E3,5.213E3,2.6E1],"tree_param":{"num_deleted":"0","num_feature":"40","num_nodes":"11","size_leaf_vector":"1"}}]},"name":"gbtree"},"learner_model_param":{"base_score":"1.7662535E2","boost_from_average":"1","num_class":"0","num_feature":"40","num_target":"1"},"objective":{"name":"reg:squarederror","reg_loss_param":{"scale_pos_weight":"1"}}},"version":[2,1,4]}